digraph Tree {
node [shape=box] ;
0 [label="X[3] <= 0.5\ngini = 0.434\nsamples = 138\nvalue = [94, 44]"] ;
1 [label="X[2] <= 1.5\ngini = 0.334\nsamples = 104\nvalue = [82, 22]"] ;
0 -> 1 [labeldistance=2.5, labelangle=45, headlabel="True"] ;
2 [label="gini = 0.0\nsamples = 19\nvalue = [19, 0]"] ;
1 -> 2 ;
3 [label="X[5] <= 1.5\ngini = 0.384\nsamples = 85\nvalue = [63, 22]"] ;
1 -> 3 ;
4 [label="X[8] <= 0.5\ngini = 0.328\nsamples = 63\nvalue = [50, 13]"] ;
3 -> 4 ;
5 [label="X[7] <= 2.5\ngini = 0.291\nsamples = 51\nvalue = [42, 9]"] ;
4 -> 5 ;
6 [label="X[2] <= 3.5\ngini = 0.326\nsamples = 39\nvalue = [31, 8]"] ;
5 -> 6 ;
7 [label="X[0] <= 2.5\ngini = 0.408\nsamples = 14\nvalue = [10, 4]"] ;
6 -> 7 ;
8 [label="gini = 0.0\nsamples = 3\nvalue = [3, 0]"] ;
7 -> 8 ;
9 [label="X[2] <= 2.5\ngini = 0.463\nsamples = 11\nvalue = [7, 4]"] ;
7 -> 9 ;
10 [label="X[6] <= 0.5\ngini = 0.278\nsamples = 6\nvalue = [5, 1]"] ;
9 -> 10 ;
11 [label="gini = 0.0\nsamples = 1\nvalue = [0, 1]"] ;
10 -> 11 ;
12 [label="gini = 0.0\nsamples = 5\nvalue = [5, 0]"] ;
10 -> 12 ;
13 [label="X[7] <= 0.5\ngini = 0.48\nsamples = 5\nvalue = [2, 3]"] ;
9 -> 13 ;
14 [label="gini = 0.0\nsamples = 1\nvalue = [0, 1]"] ;
13 -> 14 ;
15 [label="X[7] <= 1.5\ngini = 0.5\nsamples = 4\nvalue = [2, 2]"] ;
13 -> 15 ;
16 [label="gini = 0.0\nsamples = 1\nvalue = [1, 0]"] ;
15 -> 16 ;
17 [label="X[5] <= 0.5\ngini = 0.444\nsamples = 3\nvalue = [1, 2]"] ;
15 -> 17 ;
18 [label="gini = 0.0\nsamples = 1\nvalue = [0, 1]"] ;
17 -> 18 ;
19 [label="X[6] <= 0.5\ngini = 0.5\nsamples = 2\nvalue = [1, 1]"] ;
17 -> 19 ;
20 [label="gini = 0.0\nsamples = 1\nvalue = [0, 1]"] ;
19 -> 20 ;
21 [label="gini = 0.0\nsamples = 1\nvalue = [1, 0]"] ;
19 -> 21 ;
22 [label="X[6] <= 0.5\ngini = 0.269\nsamples = 25\nvalue = [21, 4]"] ;
6 -> 22 ;
23 [label="X[0] <= 1.5\ngini = 0.117\nsamples = 16\nvalue = [15, 1]"] ;
22 -> 23 ;
24 [label="X[7] <= 1.5\ngini = 0.5\nsamples = 2\nvalue = [1, 1]"] ;
23 -> 24 ;
25 [label="gini = 0.0\nsamples = 1\nvalue = [1, 0]"] ;
24 -> 25 ;
26 [label="gini = 0.0\nsamples = 1\nvalue = [0, 1]"] ;
24 -> 26 ;
27 [label="gini = 0.0\nsamples = 14\nvalue = [14, 0]"] ;
23 -> 27 ;
28 [label="X[2] <= 5.5\ngini = 0.444\nsamples = 9\nvalue = [6, 3]"] ;
22 -> 28 ;
29 [label="X[0] <= 1.5\ngini = 0.32\nsamples = 5\nvalue = [4, 1]"] ;
28 -> 29 ;
30 [label="gini = 0.0\nsamples = 1\nvalue = [1, 0]"] ;
29 -> 30 ;
31 [label="X[7] <= 0.5\ngini = 0.375\nsamples = 4\nvalue = [3, 1]"] ;
29 -> 31 ;
32 [label="gini = 0.0\nsamples = 1\nvalue = [1, 0]"] ;
31 -> 32 ;
33 [label="X[0] <= 2.5\ngini = 0.444\nsamples = 3\nvalue = [2, 1]"] ;
31 -> 33 ;
34 [label="X[7] <= 1.5\ngini = 0.5\nsamples = 2\nvalue = [1, 1]"] ;
33 -> 34 ;
35 [label="gini = 0.0\nsamples = 1\nvalue = [0, 1]"] ;
34 -> 35 ;
36 [label="gini = 0.0\nsamples = 1\nvalue = [1, 0]"] ;
34 -> 36 ;
37 [label="gini = 0.0\nsamples = 1\nvalue = [1, 0]"] ;
33 -> 37 ;
38 [label="X[2] <= 6.5\ngini = 0.5\nsamples = 4\nvalue = [2, 2]"] ;
28 -> 38 ;
39 [label="gini = 0.0\nsamples = 1\nvalue = [0, 1]"] ;
38 -> 39 ;
40 [label="X[7] <= 1.5\ngini = 0.444\nsamples = 3\nvalue = [2, 1]"] ;
38 -> 40 ;
41 [label="X[0] <= 3.0\ngini = 0.5\nsamples = 2\nvalue = [1, 1]"] ;
40 -> 41 ;
42 [label="gini = 0.0\nsamples = 1\nvalue = [1, 0]"] ;
41 -> 42 ;
43 [label="gini = 0.0\nsamples = 1\nvalue = [0, 1]"] ;
41 -> 43 ;
44 [label="gini = 0.0\nsamples = 1\nvalue = [1, 0]"] ;
40 -> 44 ;
45 [label="X[0] <= 2.5\ngini = 0.153\nsamples = 12\nvalue = [11, 1]"] ;
5 -> 45 ;
46 [label="gini = 0.0\nsamples = 8\nvalue = [8, 0]"] ;
45 -> 46 ;
47 [label="X[1] <= 1.0\ngini = 0.375\nsamples = 4\nvalue = [3, 1]"] ;
45 -> 47 ;
48 [label="gini = 0.0\nsamples = 3\nvalue = [3, 0]"] ;
47 -> 48 ;
49 [label="gini = 0.0\nsamples = 1\nvalue = [0, 1]"] ;
47 -> 49 ;
50 [label="X[2] <= 3.0\ngini = 0.444\nsamples = 12\nvalue = [8, 4]"] ;
4 -> 50 ;
51 [label="gini = 0.0\nsamples = 2\nvalue = [2, 0]"] ;
50 -> 51 ;
52 [label="X[7] <= 1.5\ngini = 0.48\nsamples = 10\nvalue = [6, 4]"] ;
50 -> 52 ;
53 [label="X[2] <= 9.5\ngini = 0.5\nsamples = 6\nvalue = [3, 3]"] ;
52 -> 53 ;
54 [label="X[2] <= 7.0\ngini = 0.48\nsamples = 5\nvalue = [3, 2]"] ;
53 -> 54 ;
55 [label="X[1] <= 1.0\ngini = 0.5\nsamples = 4\nvalue = [2, 2]"] ;
54 -> 55 ;
56 [label="gini = 0.0\nsamples = 1\nvalue = [1, 0]"] ;
55 -> 56 ;
57 [label="X[6] <= 0.5\ngini = 0.444\nsamples = 3\nvalue = [1, 2]"] ;
55 -> 57 ;
58 [label="gini = 0.0\nsamples = 2\nvalue = [0, 2]"] ;
57 -> 58 ;
59 [label="gini = 0.0\nsamples = 1\nvalue = [1, 0]"] ;
57 -> 59 ;
60 [label="gini = 0.0\nsamples = 1\nvalue = [1, 0]"] ;
54 -> 60 ;
61 [label="gini = 0.0\nsamples = 1\nvalue = [0, 1]"] ;
53 -> 61 ;
62 [label="X[5] <= 0.5\ngini = 0.375\nsamples = 4\nvalue = [3, 1]"] ;
52 -> 62 ;
63 [label="gini = 0.0\nsamples = 1\nvalue = [0, 1]"] ;
62 -> 63 ;
64 [label="gini = 0.0\nsamples = 3\nvalue = [3, 0]"] ;
62 -> 64 ;
65 [label="X[7] <= 2.5\ngini = 0.483\nsamples = 22\nvalue = [13, 9]"] ;
3 -> 65 ;
66 [label="X[0] <= 3.5\ngini = 0.432\nsamples = 19\nvalue = [13, 6]"] ;
65 -> 66 ;
67 [label="X[1] <= 1.5\ngini = 0.337\nsamples = 14\nvalue = [11, 3]"] ;
66 -> 67 ;
68 [label="gini = 0.0\nsamples = 8\nvalue = [8, 0]"] ;
67 -> 68 ;
69 [label="X[4] <= 0.5\ngini = 0.5\nsamples = 6\nvalue = [3, 3]"] ;
67 -> 69 ;
70 [label="X[2] <= 5.5\ngini = 0.48\nsamples = 5\nvalue = [3, 2]"] ;
69 -> 70 ;
71 [label="X[2] <= 4.5\ngini = 0.375\nsamples = 4\nvalue = [3, 1]"] ;
70 -> 71 ;
72 [label="X[6] <= 0.5\ngini = 0.5\nsamples = 2\nvalue = [1, 1]"] ;
71 -> 72 ;
73 [label="gini = 0.0\nsamples = 1\nvalue = [0, 1]"] ;
72 -> 73 ;
74 [label="gini = 0.0\nsamples = 1\nvalue = [1, 0]"] ;
72 -> 74 ;
75 [label="gini = 0.0\nsamples = 2\nvalue = [2, 0]"] ;
71 -> 75 ;
76 [label="gini = 0.0\nsamples = 1\nvalue = [0, 1]"] ;
70 -> 76 ;
77 [label="gini = 0.0\nsamples = 1\nvalue = [0, 1]"] ;
69 -> 77 ;
78 [label="X[6] <= 0.5\ngini = 0.48\nsamples = 5\nvalue = [2, 3]"] ;
66 -> 78 ;
79 [label="gini = 0.0\nsamples = 2\nvalue = [2, 0]"] ;
78 -> 79 ;
80 [label="gini = 0.0\nsamples = 3\nvalue = [0, 3]"] ;
78 -> 80 ;
81 [label="gini = 0.0\nsamples = 3\nvalue = [0, 3]"] ;
65 -> 81 ;
82 [label="X[2] <= 5.5\ngini = 0.457\nsamples = 34\nvalue = [12, 22]"] ;
0 -> 82 [labeldistance=2.5, labelangle=-45, headlabel="False"] ;
83 [label="X[5] <= 1.5\ngini = 0.355\nsamples = 26\nvalue = [6, 20]"] ;
82 -> 83 ;
84 [label="X[0] <= 3.5\ngini = 0.5\nsamples = 12\nvalue = [6, 6]"] ;
83 -> 84 ;
85 [label="X[8] <= 0.5\ngini = 0.444\nsamples = 9\nvalue = [6, 3]"] ;
84 -> 85 ;
86 [label="gini = 0.0\nsamples = 3\nvalue = [3, 0]"] ;
85 -> 86 ;
87 [label="X[7] <= 3.0\ngini = 0.5\nsamples = 6\nvalue = [3, 3]"] ;
85 -> 87 ;
88 [label="X[3] <= 5.5\ngini = 0.48\nsamples = 5\nvalue = [3, 2]"] ;
87 -> 88 ;
89 [label="X[6] <= 0.5\ngini = 0.375\nsamples = 4\nvalue = [3, 1]"] ;
88 -> 89 ;
90 [label="X[0] <= 2.5\ngini = 0.5\nsamples = 2\nvalue = [1, 1]"] ;
89 -> 90 ;
91 [label="gini = 0.0\nsamples = 1\nvalue = [0, 1]"] ;
90 -> 91 ;
92 [label="gini = 0.0\nsamples = 1\nvalue = [1, 0]"] ;
90 -> 92 ;
93 [label="gini = 0.0\nsamples = 2\nvalue = [2, 0]"] ;
89 -> 93 ;
94 [label="gini = 0.0\nsamples = 1\nvalue = [0, 1]"] ;
88 -> 94 ;
95 [label="gini = 0.0\nsamples = 1\nvalue = [0, 1]"] ;
87 -> 95 ;
96 [label="gini = 0.0\nsamples = 3\nvalue = [0, 3]"] ;
84 -> 96 ;
97 [label="gini = 0.0\nsamples = 14\nvalue = [0, 14]"] ;
83 -> 97 ;
98 [label="X[0] <= 1.5\ngini = 0.375\nsamples = 8\nvalue = [6, 2]"] ;
82 -> 98 ;
99 [label="gini = 0.0\nsamples = 1\nvalue = [0, 1]"] ;
98 -> 99 ;
100 [label="X[0] <= 3.5\ngini = 0.245\nsamples = 7\nvalue = [6, 1]"] ;
98 -> 100 ;
101 [label="gini = 0.0\nsamples = 5\nvalue = [5, 0]"] ;
100 -> 101 ;
102 [label="X[7] <= 0.5\ngini = 0.5\nsamples = 2\nvalue = [1, 1]"] ;
100 -> 102 ;
103 [label="gini = 0.0\nsamples = 1\nvalue = [1, 0]"] ;
102 -> 103 ;
104 [label="gini = 0.0\nsamples = 1\nvalue = [0, 1]"] ;
102 -> 104 ;
}
